<?xml version="1.0" encoding="UTF-8" standalone="yes"?>
<PMML xmlns="http://www.dmg.org/PMML-4_4" xmlns:data="http://jpmml.org/jpmml-model/InlineTable" version="4.4">
	<Header>
		<Application name="SkLearn2PMML package" version="0.92.0"/>
		<Timestamp>2023-04-14T17:23:10Z</Timestamp>
	</Header>
	<DataDictionary>
		<DataField name="y" optype="continuous" dataType="double"/>
		<DataField name="x1" optype="continuous" dataType="float"/>
		<DataField name="x2" optype="continuous" dataType="float"/>
		<DataField name="x3" optype="continuous" dataType="float"/>
	</DataDictionary>
	<MiningModel functionName="regression" algorithmName="sklearn.ensemble._forest.RandomForestRegressor">
		<MiningSchema>
			<MiningField name="y" usageType="target"/>
			<MiningField name="x3"/>
			<MiningField name="x2"/>
			<MiningField name="x1"/>
		</MiningSchema>
		<LocalTransformations>
			<DerivedField name="double(x3)" optype="continuous" dataType="double">
				<FieldRef field="x3"/>
			</DerivedField>
			<DerivedField name="double(x2)" optype="continuous" dataType="double">
				<FieldRef field="x2"/>
			</DerivedField>
			<DerivedField name="double(x1)" optype="continuous" dataType="double">
				<FieldRef field="x1"/>
			</DerivedField>
		</LocalTransformations>
		<Segmentation multipleModelMethod="average" missingPredictionTreatment="returnMissing">
			<Segment id="1">
				<True/>
				<TreeModel functionName="regression" missingValueStrategy="nullPrediction" noTrueChildStrategy="returnLastPrediction">
					<MiningSchema>
						<MiningField name="double(x3)"/>
						<MiningField name="double(x2)"/>
						<MiningField name="double(x1)"/>
					</MiningSchema>
					<Node score="0.01137625">
						<True/>
						<Node score="4.89172375">
							<SimplePredicate field="double(x3)" operator="lessOrEqual" value="2.5"/>
							<Node score="0.52939375">
								<SimplePredicate field="double(x2)" operator="lessOrEqual" value="10.399107456207275"/>
								<Node score="4.184526666666667">
									<SimplePredicate field="double(x2)" operator="lessOrEqual" value="-8.182143211364746"/>
									<Node score="4.441604166666667">
										<SimplePredicate field="double(x2)" operator="lessOrEqual" value="-11.623529434204102"/>
										<Node score="1.4161412500000001">
											<SimplePredicate field="double(x1)" operator="lessOrEqual" value="0.012500000186264515"/>
										</Node>
										<Node score="3.999375">
											<SimplePredicate field="double(x1)" operator="lessOrEqual" value="0.11875000223517418"/>
											<Node score="4.123570833333333">
												<SimplePredicate field="double(x1)" operator="lessOrEqual" value="0.029166667722165585"/>
											</Node>
										</Node>
									</Node>
									<Node score="4.441604166666667">
										<SimplePredicate field="double(x1)" operator="lessOrEqual" value="1.659999966621399"/>
										<Node score="1.869339166666667">
											<SimplePredicate field="double(x3)" operator="lessOrEqual" value="1.5"/>
											<Node score="3.61221625">
												<SimplePredicate field="double(x2)" operator="lessOrEqual" value="-10.93823528289795"/>
												<Node score="1.7086783333333333">
													<SimplePredicate field="double(x2)" operator="lessOrEqual" value="-11.291176795959473"/>
												</Node>
											</Node>
											<Node score="1.26838875">
												<SimplePredicate field="double(x2)" operator="lessOrEqual" value="-9.68823528289795"/>
												<Node score="1.20500625">
													<SimplePredicate field="double(x2)" operator="lessOrEqual" value="-10.573529243469238"/>
												</Node>
												<Node score="1.29140875">
													<SimplePredicate field="double(x2)" operator="lessOrEqual" value="-10.020588397979736"/>
												</Node>
											</Node>
											<Node score="3.944887916666667">
												<SimplePredicate field="double(x2)" operator="lessOrEqual" value="-8.679411888122559"/>
												<Node score="1.4636895833333334">
													<SimplePredicate field="double(x1)" operator="lessOrEqual" value="0.38750000298023224"/>
													<Node score="2.00164625">
														<SimplePredicate field="double(x2)" operator="lessOrEqual" value="-8.850000381469727"/>
														<Node score="1.866384583333333">
															<SimplePredicate field="double(x2)" operator="lessOrEqual" value="-9.373529434204102"/>
														</Node>
														<Node score="2.0056604166666667">
															<SimplePredicate field="double(x2)" operator="lessOrEqual" value="-9.011765003204346"/>
														</Node>
													</Node>
												</Node>
											</Node>
											<Node score="1.1527229166666666">
												<SimplePredicate field="double(x2)" operator="lessOrEqual" value="-8.212867736816406"/>
												<Node score="1.3846583333333333">
													<SimplePredicate field="double(x2)" operator="lessOrEqual" value="-8.27169132232666"/>
													<Node score="1.2159883333333334">
														<SimplePredicate field="double(x2)" operator="lessOrEqual" value="-8.598162174224854"/>
													</Node>
													<Node score="1.5905183333333335">
														<SimplePredicate field="double(x2)" operator="lessOrEqual" value="-8.323529243469238"/>
														<Node score="1.5463037499999999">
															<SimplePredicate field="double(x1)" operator="lessOrEqual" value="0.7662499905563891"/>
															<Node score="1.5062275000000003">
																<SimplePredicate field="double(x1)" operator="lessOrEqual" value="0.0062500000931322575"/>
															</Node>
														</Node>
													</Node>
												</Node>
											</Node>
										</Node>
										<Node score="1.26838875">
											<SimplePredicate field="double(x2)" operator="lessOrEqual" value="-8.921428680419922"/>
											<Node score="1.8010900000000003">
												<SimplePredicate field="double(x1)" operator="lessOrEqual" value="0.45000001788139343"/>
												<Node score="1.4161412500000001">
													<SimplePredicate field="double(x2)" operator="lessOrEqual" value="-9.550000190734863"/>
													<Node score="2.0056604166666667">
														<SimplePredicate field="double(x2)" operator="lessOrEqual" value="-10.496428489685059"/>
													</Node>
												</Node>
												<Node score="3.61221625">
													<SimplePredicate field="double(x1)" operator="lessOrEqual" value="0.3235294222831726"/>
												</Node>
											</Node>
											<Node score="3.944887916666667">
												<SimplePredicate field="double(x2)" operator="lessOrEqual" value="-9.45714282989502"/>
											</Node>
										</Node>
									</Node>
								</Node>
								<Node score="1.8256375">
									<SimplePredicate field="double(x1)" operator="lessOrEqual" value="0.45588235557079315"/>
									<Node score="1.0490629166666665">
										<SimplePredicate field="double(x2)" operator="lessOrEqual" value="6.6015684604644775"/>
										<Node score="2.704641666666667">
											<SimplePredicate field="double(x2)" operator="lessOrEqual" value="-4.673529386520386"/>
											<Node score="1.2970033333333333">
												<SimplePredicate field="double(x2)" operator="lessOrEqual" value="-4.744117498397827"/>
												<Node score="2.449915416666667">
													<SimplePredicate field="double(x2)" operator="lessOrEqual" value="-5.1000001430511475"/>
													<Node score="1.5425341666666668">
														<SimplePredicate field="double(x2)" operator="lessOrEqual" value="-5.4434874057769775"/>
														<Node score="3.93214875">
															<SimplePredicate field="double(x2)" operator="lessOrEqual" value="-5.761764764785767"/>
															<Node score="1.7086783333333333">
																<SimplePredicate field="double(x2)" operator="lessOrEqual" value="-6.275000095367432"/>
																<Node score="1.5281420833333332">
																	<SimplePredicate field="double(x1)" operator="lessOrEqual" value="0.008823529817163944"/>
																	<Node score="3.303375416666667">
																		<SimplePredicate field="double(x2)" operator="lessOrEqual" value="-7.285714387893677"/>
																	</Node>
																</Node>
																<Node score="1.9729083333333335">
																	<SimplePredicate field="double(x1)" operator="lessOrEqual" value="0.12867647409439087"/>
																	<Node score="1.866384583333333">
																		<SimplePredicate field="double(x1)" operator="lessOrEqual" value="0.046323531307280064"/>
																	</Node>
																</Node>
																<Node score="1.6082045833333334">
																	<SimplePredicate field="double(x2)" operator="lessOrEqual" value="-7.607142686843872"/>
																</Node>
															</Node>
														</Node>
														<Node score="1.0139812499999998">
															<SimplePredicate field="double(x2)" operator="lessOrEqual" value="-5.50882363319397"/>
														</Node>
													</Node>
													<Node score="3.448014166666667">
														<SimplePredicate field="double(x1)" operator="lessOrEqual" value="0.1875"/>
														<Node score="2.8966591666666672">
															<SimplePredicate field="double(x1)" operator="lessOrEqual" value="0.07500000298023224"/>
														</Node>
													</Node>
												</Node>
												<Node score="1.3295454166666667">
													<SimplePredicate field="double(x3)" operator="lessOrEqual" value="1.5"/>
													<Node score="1.6223029166666667">
														<SimplePredicate field="double(x1)" operator="lessOrEqual" value="0.09027778077870607"/>
													</Node>
												</Node>
											</Node>
										</Node>
										<Node score="1.8156104166666667">
											<SimplePredicate field="double(x1)" operator="lessOrEqual" value="0.4000000059604645"/>
											<Node score="1.2215749999999999">
												<SimplePredicate field="double(x1)" operator="lessOrEqual" value="0.006274509942159057"/>
												<Node score="3.257687916666667">
													<SimplePredicate field="double(x2)" operator="lessOrEqual" value="-1.574999988079071"/>
													<Node score="1.58149875">
														<SimplePredicate field="double(x2)" operator="lessOrEqual" value="-1.6821428537368774"/>
														<Node score="1.12732625">
															<SimplePredicate field="double(x2)" operator="lessOrEqual" value="-4.325000047683716"/>
														</Node>
														<Node score="2.35177875">
															<SimplePredicate field="double(x2)" operator="lessOrEqual" value="-1.8483193516731262"/>
															<Node score="0.9772316666666666">
																<SimplePredicate field="double(x2)" operator="lessOrEqual" value="-2.3281513452529907"/>
																<Node score="1.7972325">
																	<SimplePredicate field="double(x2)" operator="lessOrEqual" value="-2.3960084915161133"/>
																	<Node score="1.9948791666666665">
																		<SimplePredicate field="double(x2)" operator="lessOrEqual" value="-3.024999976158142"/>
																		<Node score="1.2452095833333334">
																			<SimplePredicate field="double(x1)" operator="lessOrEqual" value="0.0029411765281111"/>
																			<Node score="1.6223029166666667">
																				<SimplePredicate field="double(x2)" operator="lessOrEqual" value="-3.621428608894348"/>
																				<Node score="1.6726291666666666">
																					<SimplePredicate field="double(x2)" operator="lessOrEqual" value="-4.17767858505249"/>
																				</Node>
																			</Node>
																		</Node>
																	</Node>
																	<Node score="2.6856158333333333">
																		<SimplePredicate field="double(x1)" operator="lessOrEqual" value="0.0029411765281111"/>
																	</Node>
																</Node>
															</Node>
															<Node score="3.113507916666667">
																<SimplePredicate field="double(x3)" operator="lessOrEqual" value="1.5"/>
															</Node>
														</Node>
														<Node score="1.31451375">
															<SimplePredicate field="double(x1)" operator="lessOrEqual" value="0.0029411765281111"/>
														</Node>
													</Node>
												</Node>
												<Node score="1.4204666666666668">
													<SimplePredicate field="double(x2)" operator="lessOrEqual" value="3.6491072177886963"/>
													<Node score="1.632505">
														<SimplePredicate field="double(x3)" operator="lessOrEqual" value="1.5"/>
														<Node score="1.2750700000000001">
															<SimplePredicate field="double(x2)" operator="lessOrEqual" value="-1.4220588207244873"/>
														</Node>
														<Node score="1.879099583333333">
															<SimplePredicate field="double(x2)" operator="lessOrEqual" value="0.5294117629528046"/>
															<Node score="2.5447105555555556">
																<SimplePredicate field="double(x2)" operator="lessOrEqual" value="-1.0705882012844086"/>
															</Node>
															<Node score="1.9713858333333334">
																<SimplePredicate field="double(x2)" operator="lessOrEqual" value="-0.6441176533699036"/>
															</Node>
														</Node>
														<Node score="1.2047375">
															<SimplePredicate field="double(x2)" operator="lessOrEqual" value="1.9606618285179138"/>
															<Node score="1.5422037499999999">
																<SimplePredicate field="double(x2)" operator="lessOrEqual" value="1.631250023841858"/>
															</Node>
														</Node>
													</Node>
													<Node score="1.2191729166666667">
														<SimplePredicate field="double(x2)" operator="lessOrEqual" value="0.8068681359291077"/>
														<Node score="1.1499533333333334">
															<SimplePredicate field="double(x2)" operator="lessOrEqual" value="-0.8642857074737549"/>
															<Node score="1.2750700000000001">
																<SimplePredicate field="double(x2)" operator="lessOrEqual" value="-1.2035714387893677"/>
															</Node>
														</Node>
														<Node score="1.4226179166666668">
															<SimplePredicate field="double(x2)" operator="lessOrEqual" value="0.5107142925262451"/>
															<Node score="1.3440170833333334">
																<SimplePredicate field="double(x2)" operator="lessOrEqual" value="-0.25357142090797424"/>
															</Node>
														</Node>
													</Node>
													<Node score="1.5910679166666666">
														<SimplePredicate field="double(x2)" operator="lessOrEqual" value="1.7107142806053162"/>
														<Node score="1.7116504166666668">
															<SimplePredicate field="double(x2)" operator="lessOrEqual" value="1.185714304447174"/>
															<Node score="1.7528470833333334">
																<SimplePredicate field="double(x1)" operator="lessOrEqual" value="0.0029411765281111"/>
																<Node score="1.7724245833333334">
																	<SimplePredicate field="double(x2)" operator="lessOrEqual" value="1.010439544916153"/>
																</Node>
															</Node>
														</Node>
													</Node>
													<Node score="1.2047375">
														<SimplePredicate field="double(x2)" operator="lessOrEqual" value="2.6035714149475098"/>
													</Node>
													<Node score="1.6369091666666666">
														<SimplePredicate field="double(x2)" operator="lessOrEqual" value="3.1464285850524902"/>
													</Node>
													<Node score="1.4153945833333335">
														<SimplePredicate field="double(x1)" operator="lessOrEqual" value="0.0029411765281111"/>
													</Node>
												</Node>
												<Node score="2.0101054166666668">
													<SimplePredicate field="double(x2)" operator="lessOrEqual" value="6.5"/>
													<Node score="1.8815341666666665">
														<SimplePredicate field="double(x3)" operator="lessOrEqual" value="1.5"/>
														<Node score="2.2021908333333333">
															<SimplePredicate field="double(x2)" operator="lessOrEqual" value="3.903308868408203"/>
														</Node>
														<Node score="1.2215749999999999">
															<SimplePredicate field="double(x2)" operator="lessOrEqual" value="5.739338159561157"/>
															<Node score="1.9307554166666667">
																<SimplePredicate field="double(x2)" operator="lessOrEqual" value="5.3470587730407715"/>
																<Node score="1.6369091666666666">
																	<SimplePredicate field="double(x2)" operator="lessOrEqual" value="4.934558868408203"/>
																	<Node score="1.7359804166666668">
																		<SimplePredicate field="double(x2)" operator="lessOrEqual" value="4.384558916091919"/>
																	</Node>
																</Node>
															</Node>
															<Node score="1.4153945833333335">
																<SimplePredicate field="double(x2)" operator="lessOrEqual" value="5.520588159561157"/>
															</Node>
														</Node>
														<Node score="1.81191">
															<SimplePredicate field="double(x2)" operator="lessOrEqual" value="6.087500095367432"/>
														</Node>
													</Node>
													<Node score="2.2021908333333333">
														<SimplePredicate field="double(x2)" operator="lessOrEqual" value="4.660714387893677"/>
														<Node score="2.1054962500000003">
															<SimplePredicate field="double(x1)" operator="lessOrEqual" value="0.0029411765281111"/>
														</Node>
													</Node>
													<Node score="1.8132970833333333">
														<SimplePredicate field="double(x2)" operator="lessOrEqual" value="6.392857313156128"/>
														<Node score="1.9307554166666667">
															<SimplePredicate field="double(x2)" operator="lessOrEqual" value="6.14642858505249"/>
															<Node score="1.97085625">
																<SimplePredicate field="double(x2)" operator="lessOrEqual" value="4.760714292526245"/>
															</Node>
															<Node score="1.8815341666666665">
																<SimplePredicate field="double(x2)" operator="lessOrEqual" value="5.732142686843872"/>
																<Node score="1.9196491666666666">
																	<SimplePredicate field="double(x2)" operator="lessOrEqual" value="4.974999904632568"/>
																</Node>
																<Node score="1.89030375">
																	<SimplePredicate field="double(x2)" operator="lessOrEqual" value="5.307142734527588"/>
																</Node>
															</Node>
														</Node>
													</Node>
												</Node>
											</Node>
											<Node score="1.1687219999999998">
												<SimplePredicate field="double(x3)" operator="lessOrEqual" value="1.5"/>
												<Node score="1.2970033333333333">
													<SimplePredicate field="double(x2)" operator="lessOrEqual" value="-3.394117593765259"/>
													<Node score="1.1248145833333334">
														<SimplePredicate field="double(x1)" operator="lessOrEqual" value="0.22374999523162842"/>
														<Node score="1.1686183333333333">
															<SimplePredicate field="double(x1)" operator="lessOrEqual" value="0.16375000029802322"/>
															<Node score="1.2247304166666666">
																<SimplePredicate field="double(x2)" operator="lessOrEqual" value="-3.6875"/>
																<Node score="1.21760125">
																	<SimplePredicate field="double(x1)" operator="lessOrEqual" value="0.07500000018626451"/>
																	<Node score="1.2880979166666666">
																		<SimplePredicate field="double(x2)" operator="lessOrEqual" value="-3.864705801010132"/>
																	</Node>
																</Node>
															</Node>
														</Node>
													</Node>
												</Node>
												<Node score="1.7972325">
													<SimplePredicate field="double(x2)" operator="lessOrEqual" value="-1.8558824062347412"/>
													<Node score="1.9416833333333334">
														<SimplePredicate field="double(x2)" operator="lessOrEqual" value="-2.591176390647888"/>
														<Node score="1.5568216666666668">
															<SimplePredicate field="double(x1)" operator="lessOrEqual" value="0.14999999850988388"/>
															<Node score="1.385604166666667">
																<SimplePredicate field="double(x1)" operator="lessOrEqual" value="0.050000001676380634"/>
																<Node score="1.1135270833333333">
																	<SimplePredicate field="double(x2)" operator="lessOrEqual" value="-3.111764669418335"/>
																</Node>
																<Node score="1.5698074999999998">
																	<SimplePredicate field="double(x2)" operator="lessOrEqual" value="-2.864705801010132"/>
																	<Node score="1.4029187500000002">
																		<SimplePredicate field="double(x2)" operator="lessOrEqual" value="-2.97352933883667"/>
																	</Node>
																</Node>
															</Node>
														</Node>
													</Node>
													<Node score="2.115400833333333">
														<SimplePredicate field="double(x1)" operator="lessOrEqual" value="0.029999999329447746"/>
														<Node score="2.58083">
															<SimplePredicate field="double(x2)" operator="lessOrEqual" value="-2.087499976158142"/>
														</Node>
													</Node>
													<Node score="2.03776">
														<SimplePredicate field="double(x2)" operator="lessOrEqual" value="-2.188235282897949"/>
													</Node>
												</Node>
												<Node score="1.12746875">
													<SimplePredicate field="double(x2)" operator="lessOrEqual" value="-0.020588237792253494"/>
													<Node score="1.8473691666666667">
														<SimplePredicate field="double(x2)" operator="lessOrEqual" value="-1.2505882382392883"/>
														<Node score="1.11291625">
															<SimplePredicate field="double(x2)" operator="lessOrEqual" value="-1.575735330581665"/>
															<Node score="1.3953795833333331">
																<SimplePredicate field="double(x1)" operator="lessOrEqual" value="0.20000000298023224"/>
																<Node score="1.226115">
																	<SimplePredicate field="double(x1)" operator="lessOrEqual" value="0.125"/>
																	<Node score="1.2755008333333333">
																		<SimplePredicate field="double(x1)" operator="lessOrEqual" value="0.06500000134110451"/>
																	</Node>
																</Node>
																<Node score="1.6610099999999999">
																	<SimplePredicate field="double(x2)" operator="lessOrEqual" value="-1.5852941274642944"/>
																</Node>
															</Node>
														</Node>
														<Node score="1.6262108333333334">
															<SimplePredicate field="double(x2)" operator="lessOrEqual" value="-1.2652941346168518"/>
															<Node score="1.58149875">
																<SimplePredicate field="double(x1)" operator="lessOrEqual" value="0.1649999963119626"/>
															</Node>
														</Node>
													</Node>
													<Node score="0.4892125">
														<SimplePredicate field="double(x2)" operator="lessOrEqual" value="-1.2058823704719543"/>
													</Node>
													<Node score="1.9433704166666665">
														<SimplePredicate field="double(x2)" operator="lessOrEqual" value="-1.0941176414489746"/>
													</Node>
													<Node score="1.36393625">
														<SimplePredicate field="double(x1)" operator="lessOrEqual" value="0.17999999597668648"/>
														<Node score="1.0724791666666667">
															<SimplePredicate field="double(x2)" operator="lessOrEqual" value="-0.6470588147640228"/>
															<Node score="1.3685125000000002">
																<SimplePredicate field="double(x2)" operator="lessOrEqual" value="-0.9176470339298248"/>
															</Node>
															<Node score="1.19812125">
																<SimplePredicate field="double(x2)" operator="lessOrEqual" value="-0.8058823347091675"/>
															</Node>
															<Node score="1.1181283333333332">
																<SimplePredicate field="double(x1)" operator="lessOrEqual" value="0.07500000111758709"/>
															</Node>
														</Node>
														<Node score="1.307105">
															<SimplePredicate field="double(x1)" operator="lessOrEqual" value="0.03249999973922968"/>
															<Node score="1.3183758333333333">
																<SimplePredicate field="double(x2)" operator="lessOrEqual" value="-0.36176470667123795"/>
																<Node score="1.30453625">
																	<SimplePredicate field="double(x2)" operator="lessOrEqual" value="-0.570588231086731"/>
																</Node>
															</Node>
															<Node score="1.2375804166666666">
																<SimplePredicate field="double(x2)" operator="lessOrEqual" value="-0.1823529452085495"/>
															</Node>
														</Node>
														<Node score="1.3634770833333334">
															<SimplePredicate field="double(x2)" operator="lessOrEqual" value="-0.5088235437870026"/>
														</Node>
													</Node>
												</Node>
												<Node score="1.9018733333333333">
													<SimplePredicate field="double(x2)" operator="lessOrEqual" value="0.23235294595360756"/>
												</Node>
												<Node score="1.7898495833333332">
													<SimplePredicate field="double(x1)" operator="lessOrEqual" value="0.022499999962747097"/>
													<Node score="1.3055441666666667">
														<SimplePredicate field="double(x2)" operator="lessOrEqual" value="1.9176470637321472"/>
														<Node score="1.5741566666666664">
															<SimplePredicate field="double(x2)" operator="lessOrEqual" value="1.7970588207244873"/>
															<Node score="1.4204666666666668">
																<SimplePredicate field="double(x2)" operator="lessOrEqual" value="1.638235330581665"/>
																<Node score="1.4226179166666668">
																	<SimplePredicate field="double(x2)" operator="lessOrEqual" value="0.9352941364049911"/>
																</Node>
															</Node>
														</Node>
													</Node>
													<Node score="1.2648816666666667">
														<SimplePredicate field="double(x2)" operator="lessOrEqual" value="4.673529386520386"/>
														<Node score="2.126224166666667">
															<SimplePredicate field="double(x2)" operator="lessOrEqual" value="4.452941179275513"/>
															<Node score="1.5910679166666666">
																<SimplePredicate field="double(x1)" operator="lessOrEqual" value="0.014999999664723873"/>
																<Node score="1.7528470833333334">
																	<SimplePredicate field="double(x2)" operator="lessOrEqual" value="2.2121323347091675"/>
																</Node>
															</Node>
														</Node>
													</Node>
													<Node score="1.8828808333333331">
														<SimplePredicate field="double(x2)" operator="lessOrEqual" value="5.856985092163086"/>
														<Node score="1.9196491666666666">
															<SimplePredicate field="double(x1)" operator="lessOrEqual" value="0.011249999981373549"/>
														</Node>
													</Node>
												</Node>
												<Node score="1.5979879166666666">
													<SimplePredicate field="double(x2)" operator="lessOrEqual" value="4.405882358551025"/>
													<Node score="1.3050466666666667">
														<SimplePredicate field="double(x2)" operator="lessOrEqual" value="1.3970587849617004"/>
														<Node score="1.7757079166666667">
															<SimplePredicate field="double(x2)" operator="lessOrEqual" value="0.9470588266849518"/>
															<Node score="1.2477554166666667">
																<SimplePredicate field="double(x2)" operator="lessOrEqual" value="0.6352941393852234"/>
															</Node>
														</Node>
														<Node score="1.2139095833333333">
															<SimplePredicate field="double(x2)" operator="lessOrEqual" value="1.220588207244873"/>
														</Node>
													</Node>
													<Node score="1.5779708333333333">
														<SimplePredicate field="double(x2)" operator="lessOrEqual" value="1.677389681339264"/>
														<Node score="1.8862745833333332">
															<SimplePredicate field="double(x1)" operator="lessOrEqual" value="0.28999999910593033"/>
															<Node score="1.9616675000000001">
																<SimplePredicate field="double(x1)" operator="lessOrEqual" value="0.20499999821186066"/>
															</Node>
														</Node>
													</Node>
													<Node score="1.3730120833333335">
														<SimplePredicate field="double(x1)" operator="lessOrEqual" value="0.07249999884516001"/>
													</Node>
													<Node score="1.59561625">
														<SimplePredicate field="double(x1)" operator="lessOrEqual" value="0.2474999986588955"/>
													</Node>
												</Node>
												<Node score="0.5402637499999999">
													<SimplePredicate field="double(x1)" operator="lessOrEqual" value="0.09374999720603228"/>
												</Node>
											</Node>
											<Node score="0.9772316666666666">
												<SimplePredicate field="double(x1)" operator="lessOrEqual" value="0.028039216063916683"/>
												<Node score="1.879099583333333">
													<SimplePredicate field="double(x1)" operator="lessOrEqual" value="0.02215686347335577"/>
													<Node score="1.4123020833333335">
														<SimplePredicate field="double(x1)" operator="lessOrEqual" value="0.015490196645259857"/>
														<Node score="1.3055441666666667">
															<SimplePredicate field="double(x2)" operator="lessOrEqual" value="-0.07857142388820648"/>
															<Node score="1.307105">
																<SimplePredicate field="double(x1)" operator="lessOrEqual" value="0.00690476200543344"/>
															</Node>
														</Node>
													</Node>
													<Node score="1.8076441666666667">
														<SimplePredicate field="double(x2)" operator="lessOrEqual" value="-0.6357142925262451"/>
													</Node>
												</Node>
											</Node>
											<Node score="2.1231779166666667">
												<SimplePredicate field="double(x1)" operator="lessOrEqual" value="0.1558823585510254"/>
												<Node score="2.6856158333333333">
													<SimplePredicate field="double(x2)" operator="lessOrEqual" value="-0.6714285835623741"/>
													<Node score="1.5425341666666668">
														<SimplePredicate field="double(x2)" operator="lessOrEqual" value="-3.153571367263794"/>
													</Node>
													<Node score="2.0923504166666667">
														<SimplePredicate field="double(x2)" operator="lessOrEqual" value="-1.9964286088943481"/>
														<Node score="2.2169841666666668">
															<SimplePredicate field="double(x2)" operator="lessOrEqual" value="-2.6714285612106323"/>
														</Node>
													</Node>
												</Node>
												<Node score="1.6078412499999999">
													<SimplePredicate field="double(x2)" operator="lessOrEqual" value="0.2964285761117935"/>
													<Node score="1.3774595833333334">
														<SimplePredicate field="double(x2)" operator="lessOrEqual" value="0.21071428805589676"/>
													</Node>
												</Node>
												<Node score="1.7700329166666666">
													<SimplePredicate field="double(x1)" operator="lessOrEqual" value="0.06470588408410549"/>
													<Node score="1.9018733333333333">
														<SimplePredicate field="double(x2)" operator="lessOrEqual" value="2.064285635948181"/>
														<Node score="1.9433704166666665">
															<SimplePredicate field="double(x2)" operator="lessOrEqual" value="0.7785714119672775"/>
														</Node>
													</Node>
													<Node score="1.8160079166666667">
														<SimplePredicate field="double(x2)" operator="lessOrEqual" value="3.7999998331069946"/>
													</Node>
													<Node score="1.7579030434782605">
														<SimplePredicate field="double(x2)" operator="lessOrEqual" value="4.739285707473755"/>
													</Node>
												</Node>
											</Node>
											<Node score="1.5741566666666664">
												<SimplePredicate field="double(x1)" operator="lessOrEqual" value="0.37039215862751007"/>
												<Node score="1.10593">
													<SimplePredicate field="double(x2)" operator="lessOrEqual" value="4.203571438789368"/>
													<Node score="1.4942725000000001">
														<SimplePredicate field="double(x2)" operator="lessOrEqual" value="3.460714340209961"/>
														<Node score="1.1715654166666667">
															<SimplePredicate field="double(x1)" operator="lessOrEqual" value="0.24600841104984283"/>
														</Node>
														<Node score="1.31451375">
															<SimplePredicate field="double(x2)" operator="lessOrEqual" value="2.0000000596046448"/>
															<Node score="1.38462">
																<SimplePredicate field="double(x2)" operator="lessOrEqual" value="0.1357143223285675"/>
															</Node>
														</Node>
													</Node>
												</Node>
												<Node score="1.5862070833333333">
													<SimplePredicate field="double(x1)" operator="lessOrEqual" value="0.2029411792755127"/>
												</Node>
											</Node>
										</Node>
										<Node score="3.5177379166666665">
											<SimplePredicate field="double(x1)" operator="lessOrEqual" value="0.4154411852359772"/>
										</Node>
										<Node score="2.597437083333334">
											<SimplePredicate field="double(x2)" operator="lessOrEqual" value="-3.1058822870254517"/>
										</Node>
									</Node>
									<Node score="3.791654166666666">
										<SimplePredicate field="double(x2)" operator="lessOrEqual" value="8.761764526367188"/>
										<Node score="1.4448791666666667">
											<SimplePredicate field="double(x2)" operator="lessOrEqual" value="8.440336227416992"/>
											<Node score="3.4554387500000003">
												<SimplePredicate field="double(x3)" operator="lessOrEqual" value="1.5"/>
												<Node score="2.3224379166666664">
													<SimplePredicate field="double(x2)" operator="lessOrEqual" value="6.979043960571289"/>
													<Node score="2.9284979166666667">
														<SimplePredicate field="double(x2)" operator="lessOrEqual" value="6.680980443954468"/>
													</Node>
													<Node score="2.18474625">
														<SimplePredicate field="double(x1)" operator="lessOrEqual" value="0.06875000149011612"/>
														<Node score="1.89030375">
															<SimplePredicate field="double(x2)" operator="lessOrEqual" value="6.853125095367432"/>
														</Node>
														<Node score="2.0462741666666666">
															<SimplePredicate field="double(x2)" operator="lessOrEqual" value="6.875"/>
														</Node>
													</Node>
												</Node>
												<Node score="3.7825012499999997">
													<SimplePredicate field="double(x1)" operator="lessOrEqual" value="0.22500000009313226"/>
												</Node>
											</Node>
											<Node score="1.79329875">
												<SimplePredicate field="double(x1)" operator="lessOrEqual" value="0.09117647260427475"/>
											</Node>
											<Node score="1.1687219999999998">
												<SimplePredicate field="double(x2)" operator="lessOrEqual" value="7.607142925262451"/>
											</Node>
										</Node>
									</Node>
									<Node score="2.6174279166666667">
										<SimplePredicate field="double(x1)" operator="lessOrEqual" value="0.04791666800156236"/>
										<Node score="2.03370125">
											<SimplePredicate field="double(x1)" operator="lessOrEqual" value="0.0062500000931322575"/>
											<Node score="1.44762875">
												<SimplePredicate field="double(x2)" operator="lessOrEqual" value="9.22857141494751"/>
											</Node>
											<Node score="1.6772458333333333">
												<SimplePredicate field="double(x2)" operator="lessOrEqual" value="10.006274223327637"/>
												<Node score="1.8339887500000003">
													<SimplePredicate field="double(x2)" operator="lessOrEqual" value="9.842226505279541"/>
													<Node score="1.79329875">
														<SimplePredicate field="double(x2)" operator="lessOrEqual" value="9.692226886749268"/>
														<Node score="1.8055387500000002">
															<SimplePredicate field="double(x2)" operator="lessOrEqual" value="9.581512928009033"/>
														</Node>
													</Node>
												</Node>
											</Node>
										</Node>
										<Node score="2.8161391666666664">
											<SimplePredicate field="double(x2)" operator="lessOrEqual" value="9.620588302612305"/>
										</Node>
									</Node>
									<Node score="1.3601679166666667">
										<SimplePredicate field="double(x2)" operator="lessOrEqual" value="10.050209999084473"/>
										<Node score="1.1459670833333333">
											<SimplePredicate field="double(x2)" operator="lessOrEqual" value="9.626470565795898"/>
											<Node score="1.6356266666666668">
												<SimplePredicate field="double(x1)" operator="lessOrEqual" value="0.30588235706090927"/>
												<Node score="1.6323">
													<SimplePredicate field="double(x3)" operator="lessOrEqual" value="1.5"/>
												</Node>
											</Node>
										</Node>
										<Node score="1.1161937499999999">
											<SimplePredicate field="double(x2)" operator="lessOrEqual" value="9.881190299987793"/>
											<Node score="1.1459670833333333">
												<SimplePredicate field="double(x2)" operator="lessOrEqual" value="9.68980360031128"/>
											</Node>
										</Node>
									</Node>
								</Node>
								<Node score="0.8744158333333335">
									<SimplePredicate field="double(x2)" operator="lessOrEqual" value="7.394537687301636"/>
									<Node score="3.5974070833333336">
										<SimplePredicate field="double(x2)" operator="lessOrEqual" value="2.875"/>
										<Node score="0.9609008333333332">
											<SimplePredicate field="double(x2)" operator="lessOrEqual" value="2.7745797634124756"/>
											<Node score="1.9466095833333332">
												<SimplePredicate field="double(x1)" operator="lessOrEqual" value="3.5139704942703247"/>
												<Node score="3.303375416666667">
													<SimplePredicate field="double(x2)" operator="lessOrEqual" value="-6.422222375869751"/>
													<Node score="1.5149204166666665">
														<SimplePredicate field="double(x2)" operator="lessOrEqual" value="-6.665079355239868"/>
														<Node score="1.4621291666666665">
															<SimplePredicate field="double(x2)" operator="lessOrEqual" value="-7.534821510314941"/>
															<Node score="1.1032870833333333">
																<SimplePredicate field="double(x1)" operator="lessOrEqual" value="0.92166668176651"/>
															</Node>
															<Node score="1.9394958333333336">
																<SimplePredicate field="double(x2)" operator="lessOrEqual" value="-8.067914485931396"/>
															</Node>
															<Node score="1.1468133333333332">
																<SimplePredicate field="double(x2)" operator="lessOrEqual" value="-7.726470708847046"/>
																<Node score="1.3787404166666668">
																	<SimplePredicate field="double(x2)" operator="lessOrEqual" value="-7.792016983032227"/>
																	<Node score="1.3432166666666667">
																		<SimplePredicate field="double(x2)" operator="lessOrEqual" value="-7.9305195808410645"/>
																	</Node>
																</Node>
															</Node>
															<Node score="1.3787404166666668">
																<SimplePredicate field="double(x1)" operator="lessOrEqual" value="2.2137500643730164"/>
															</Node>
														</Node>
														<Node score="2.00164625">
															<SimplePredicate field="double(x2)" operator="lessOrEqual" value="-7.387662410736084"/>
														</Node>
														<Node score="1.3174529166666666">
															<SimplePredicate field="double(x1)" operator="lessOrEqual" value="0.8899999856948853"/>
														</Node>
														<Node score="1.4327058333333333">
															<SimplePredicate field="double(x1)" operator="lessOrEqual" value="1.4111764430999756"/>
														</Node>
													</Node>
												</Node>
												<Node score="0.9196017391304345">
													<SimplePredicate field="double(x2)" operator="lessOrEqual" value="-4.886554718017578"/>
													<Node score="1.3138637499999999">
														<SimplePredicate field="double(x1)" operator="lessOrEqual" value="0.6282353103160858"/>
													</Node>
													<Node score="1.1904775">
														<SimplePredicate field="double(x2)" operator="lessOrEqual" value="-5.516071319580078"/>
														<Node score="1.067685">
															<SimplePredicate field="double(x2)" operator="lessOrEqual" value="-5.89642858505249"/>
															<Node score="1.1192695833333333">
																<SimplePredicate field="double(x2)" operator="lessOrEqual" value="-6.317857265472412"/>
															</Node>
														</Node>
													</Node>
													<Node score="1.02857125">
														<SimplePredicate field="double(x1)" operator="lessOrEqual" value="0.6987499892711639"/>
														<Node score="1.2701133333333334">
															<SimplePredicate field="double(x2)" operator="lessOrEqual" value="-5.023529529571533"/>
														</Node>
													</Node>
												</Node>
												<Node score="2.08764875">
													<SimplePredicate field="double(x2)" operator="lessOrEqual" value="-3.0821428298950195"/>
													<Node score="1.3846583333333333">
														<SimplePredicate field="double(x2)" operator="lessOrEqual" value="-3.1464285850524902"/>
														<Node score="1.9394958333333336">
															<SimplePredicate field="double(x2)" operator="lessOrEqual" value="-4.718382358551025"/>
															<Node score="2.1134299999999997">
																<SimplePredicate field="double(x3)" operator="lessOrEqual" value="1.5"/>
															</Node>
														</Node>
														<Node score="1.3295454166666667">
															<SimplePredicate field="double(x2)" operator="lessOrEqual" value="-3.5785714387893677"/>
															<Node score="1.2788975">
																<SimplePredicate field="double(x2)" operator="lessOrEqual" value="-4.369642972946167"/>
																<Node score="1.2237554166666667">
																	<SimplePredicate field="double(x1)" operator="lessOrEqual" value="2.0850000381469727"/>
																</Node>
															</Node>
															<Node score="2.0625933333333335">
																<SimplePredicate field="double(x2)" operator="lessOrEqual" value="-4.244747877120972"/>
																<Node score="1.4621291666666665">
																	<SimplePredicate field="double(x1)" operator="lessOrEqual" value="2.341911792755127"/>
																</Node>
															</Node>
															<Node score="1.6691616666666667">
																<SimplePredicate field="double(x1)" operator="lessOrEqual" value="1.225000023841858"/>
															</Node>
															<Node score="1.4751416666666666">
																<SimplePredicate field="double(x3)" operator="lessOrEqual" value="1.5"/>
																<Node score="1.4979666666666667">
																	<SimplePredicate field="double(x2)" operator="lessOrEqual" value="-3.987499952316284"/>
																</Node>
															</Node>
															<Node score="1.23142875">
																<SimplePredicate field="double(x1)" operator="lessOrEqual" value="2.445294141769409"/>
															</Node>
														</Node>
														<Node score="2.449915416666667">
															<SimplePredicate field="double(x2)" operator="lessOrEqual" value="-3.3855042457580566"/>
														</Node>
														<Node score="1.3569912499999999">
															<SimplePredicate field="double(x2)" operator="lessOrEqual" value="-3.221218466758728"/>
														</Node>
													</Node>
												</Node>
												<Node score="1.7814991666666666">
													<SimplePredicate field="double(x1)" operator="lessOrEqual" value="3.3674999475479126"/>
													<Node score="1.0930983333333335">
														<SimplePredicate field="double(x2)" operator="lessOrEqual" value="0.40937499701976776"/>
														<Node score="2.0349991666666667">
															<SimplePredicate field="double(x1)" operator="lessOrEqual" value="1.9600000381469727"/>
															<Node score="1.1686183333333333">
																<SimplePredicate field="double(x1)" operator="lessOrEqual" value="1.5883333683013916"/>
																<Node score="1.6610099999999999">
																	<SimplePredicate field="double(x2)" operator="lessOrEqual" value="-1.3441177010536194"/>
																	<Node score="1.2969166666666665">
																		<SimplePredicate field="double(x3)" operator="lessOrEqual" value="1.5"/>
																		<Node score="1.1865829166666666">
																			<SimplePredicate field="double(x1)" operator="lessOrEqual" value="1.1899999976158142"/>
																			<Node score="0.9774745833333333">
																				<SimplePredicate field="double(x1)" operator="lessOrEqual" value="0.5350000113248825"/>
																			</Node>
																			<Node score="1.1628566666666666">
																				<SimplePredicate field="double(x1)" operator="lessOrEqual" value="1.0899999737739563"/>
																				<Node score="1.1017325">
																					<SimplePredicate field="double(x2)" operator="lessOrEqual" value="-1.658823549747467"/>
																				</Node>
																			</Node>
																		</Node>
																	</Node>
																	<Node score="1.21760125">
																		<SimplePredicate field="double(x2)" operator="lessOrEqual" value="-2.482142925262451"/>
																		<Node score="1.1248145833333334">
																			<SimplePredicate field="double(x2)" operator="lessOrEqual" value="-3.014285683631897"/>
																		</Node>
																	</Node>
																</Node>
																<Node score="1.6222349999999999">
																	<SimplePredicate field="double(x1)" operator="lessOrEqual" value="0.6800000071525574"/>
																</Node>
																<Node score="1.3753733333333333">
																	<SimplePredicate field="double(x3)" operator="lessOrEqual" value="1.5"/>
																	<Node score="1.2930470833333334">
																		<SimplePredicate field="double(x1)" operator="lessOrEqual" value="1.1638888716697693"/>
																	</Node>
																	<Node score="1.3452691666666665">
																		<SimplePredicate field="double(x2)" operator="lessOrEqual" value="-0.6857142895460129"/>
																		<Node score="1.3183037499999999">
																			<SimplePredicate field="double(x1)" operator="lessOrEqual" value="1.3149999976158142"/>
																		</Node>
																	</Node>
																	<Node score="1.3769533333333335">
																		<SimplePredicate field="double(x2)" operator="lessOrEqual" value="-0.2500000037252903"/>
																	</Node>
																</Node>
																<Node score="1.11291625">
																	<SimplePredicate field="double(x2)" operator="lessOrEqual" value="-0.03928571194410324"/>
																</Node>
															</Node>
															<Node score="1.2247304166666666">
																<SimplePredicate field="double(x2)" operator="lessOrEqual" value="-2.333193302154541"/>
															</Node>
															<Node score="1.7337670833333334">
																<SimplePredicate field="double(x1)" operator="lessOrEqual" value="1.7897059321403503"/>
																<Node score="1.6230445833333331">
																	<SimplePredicate field="double(x2)" operator="lessOrEqual" value="-0.9403361529111862"/>
																</Node>
															</Node>
														</Node>
														<Node score="0.9849391666666666">
															<SimplePredicate field="double(x1)" operator="lessOrEqual" value="2.0114705562591553"/>
														</Node>
														<Node score="1.6262108333333334">
															<SimplePredicate field="double(x1)" operator="lessOrEqual" value="2.211764693260193"/>
														</Node>
														<Node score="0.9196017391304345">
															<SimplePredicate field="double(x1)" operator="lessOrEqual" value="2.51235294342041"/>
															<Node score="1.0299729166666667">
																<SimplePredicate field="double(x2)" operator="lessOrEqual" value="-0.8142856955528259"/>
															</Node>
														</Node>
														<Node score="1.7328208333333335">
															<SimplePredicate field="double(x1)" operator="lessOrEqual" value="3.002500057220459"/>
															<Node score="1.2880979166666666">
																<SimplePredicate field="double(x1)" operator="lessOrEqual" value="2.75"/>
																<Node score="1.1715654166666667">
																	<SimplePredicate field="double(x3)" operator="lessOrEqual" value="1.5"/>
																</Node>
															</Node>
															<Node score="1.33937">
																<SimplePredicate field="double(x2)" operator="lessOrEqual" value="-1.4485293924808502"/>
															</Node>
															<Node score="1.6503966666666667">
																<SimplePredicate field="double(x1)" operator="lessOrEqual" value="2.8012499809265137"/>
															</Node>
														</Node>
														<Node score="1.2402945833333334">
															<SimplePredicate field="double(x2)" operator="lessOrEqual" value="-0.8292016535997391"/>
														</Node>
														<Node score="1.0490629166666665">
															<SimplePredicate field="double(x2)" operator="lessOrEqual" value="-0.19464285671710968"/>
														</Node>
													</Node>
													<Node score="2.1034029166666666">
														<SimplePredicate field="double(x2)" operator="lessOrEqual" value="1.5342437028884888"/>
														<Node score="1.3634770833333334">
															<SimplePredicate field="double(x2)" operator="lessOrEqual" value="1.2361991107463837"/>
															<Node score="1.7172620833333336">
																<SimplePredicate field="double(x1)" operator="lessOrEqual" value="1.808333396911621"/>
																<Node score="1.5779708333333333">
																	<SimplePredicate field="double(x1)" operator="lessOrEqual" value="0.6997058689594269"/>
																	<Node score="1.3479604166666668">
																		<SimplePredicate field="double(x3)" operator="lessOrEqual" value="1.5"/>
																	</Node>
																	<Node score="1.4940637500000002">
																		<SimplePredicate field="double(x1)" operator="lessOrEqual" value="0.5588235259056091"/>
																	</Node>
																</Node>
																<Node score="2.005365">
																	<SimplePredicate field="double(x2)" operator="lessOrEqual" value="0.8023529350757599"/>
																	<Node score="1.8473691666666667">
																		<SimplePredicate field="double(x2)" operator="lessOrEqual" value="0.5878571271896362"/>
																	</Node>
																</Node>
															</Node>
															<Node score="1.3440170833333334">
																<SimplePredicate field="double(x3)" operator="lessOrEqual" value="1.5"/>
															</Node>
														</Node>
														<Node score="1.8862745833333332">
															<SimplePredicate field="double(x1)" operator="lessOrEqual" value="2.558823585510254"/>
														</Node>
													</Node>
													<Node score="1.0228808333333332">
														<SimplePredicate field="double(x1)" operator="lessOrEqual" value="2.8899999856948853"/>
														<Node score="1.77322">
															<SimplePredicate field="double(x1)" operator="lessOrEqual" value="2.708039164543152"/>
															<Node score="1.77322">
																<SimplePredicate field="double(x1)" operator="lessOrEqual" value="2.554705858230591"/>
																<Node score="1.09814">
																	<SimplePredicate field="double(x2)" operator="lessOrEqual" value="2.6590336561203003"/>
																	<Node score="1.5698074999999998">
																		<SimplePredicate field="double(x2)" operator="lessOrEqual" value="1.8707983493804932"/>
																		<Node score="1.0788933333333333">
																			<SimplePredicate field="double(x2)" operator="lessOrEqual" value="1.600000023841858"/>
																			<Node score="1.1646570833333334">
																				<SimplePredicate field="double(x1)" operator="lessOrEqual" value="0.9900000095367432"/>
																			</Node>
																		</Node>
																		<Node score="1.4577666666666669">
																			<SimplePredicate field="double(x1)" operator="lessOrEqual" value="1.3220587968826294"/>
																		</Node>
																	</Node>
																	<Node score="1.0278720833333332">
																		<SimplePredicate field="double(x3)" operator="lessOrEqual" value="1.5"/>
																	</Node>
																	<Node score="1.2110720833333335">
																		<SimplePredicate field="double(x2)" operator="lessOrEqual" value="2.6321429014205933"/>
																		<Node score="1.1646570833333334">
																			<SimplePredicate field="double(x2)" operator="lessOrEqual" value="2.274999976158142"/>
																		</Node>
																		<Node score="1.1932666666666667">
																			<SimplePredicate field="double(x2)" operator="lessOrEqual" value="2.489285707473755"/>
																		</Node>
																	</Node>
																</Node>
															</Node>
														</Node>
														<Node score="0.8935895833333333">
															<SimplePredicate field="double(x2)" operator="lessOrEqual" value="2.204201638698578"/>
														</Node>
													</Node>
												</Node>
											</Node>
											<Node score="2.52182875">
												<SimplePredicate field="double(x2)" operator="lessOrEqual" value="-7.063235282897949"/>
											</Node>
											<Node score="3.657163333333333">
												<SimplePredicate field="double(x2)" operator="lessOrEqual" value="1.3464285731315613"/>
												<Node score="1.4577666666666669">
													<SimplePredicate field="double(x2)" operator="lessOrEqual" value="1.310714304447174"/>
													<Node score="0.7690354166666667">
														<SimplePredicate field="double(x3)" operator="lessOrEqual" value="1.5"/>
														<Node score="1.1116995833333334">
															<SimplePredicate field="double(x2)" operator="lessOrEqual" value="-0.6088235378265381"/>
															<Node score="1.1582316666666665">
																<SimplePredicate field="double(x2)" operator="lessOrEqual" value="-1.820588231086731"/>
																<Node score="1.0385829166666667">
																	<SimplePredicate field="double(x1)" operator="lessOrEqual" value="4.9312498569488525"/>
																	<Node score="0.9660558333333332">
																		<SimplePredicate field="double(x2)" operator="lessOrEqual" value="-2.9764705896377563"/>
																		<Node score="0.9463520833333332">
																			<SimplePredicate field="double(x2)" operator="lessOrEqual" value="-3.3735294342041016"/>
																		</Node>
																	</Node>
																	<Node score="1.0812675">
																		<SimplePredicate field="double(x2)" operator="lessOrEqual" value="-2.647058844566345"/>
																	</Node>
																</Node>
																<Node score="1.4161645833333332">
																	<SimplePredicate field="double(x2)" operator="lessOrEqual" value="-5.4375"/>
																</Node>
																<Node score="1.4102704166666669">
																	<SimplePredicate field="double(x1)" operator="lessOrEqual" value="5.761250019073486"/>
																	<Node score="1.3960641666666669">
																		<SimplePredicate field="double(x1)" operator="lessOrEqual" value="5.450000047683716"/>
																	</Node>
																</Node>
																<Node score="1.01967">
																	<SimplePredicate field="double(x2)" operator="lessOrEqual" value="-2.5852941274642944"/>
																	<Node score="1.01902125">
																		<SimplePredicate field="double(x2)" operator="lessOrEqual" value="-3.883088231086731"/>
																	</Node>
																</Node>
															</Node>
															<Node score="2.0488166666666667">
																<SimplePredicate field="double(x1)" operator="lessOrEqual" value="4.478749990463257"/>
															</Node>
														</Node>
														<Node score="0.8286820833333334">
															<SimplePredicate field="double(x1)" operator="lessOrEqual" value="5.837500095367432"/>
															<Node score="0.9229429166666666">
																<SimplePredicate field="double(x2)" operator="lessOrEqual" value="0.6382353007793427"/>
																<Node score="0.9951920833333334">
																	<SimplePredicate field="double(x1)" operator="lessOrEqual" value="3.9012500047683716"/>
																</Node>
																<Node score="0.9494370833333333">
																	<SimplePredicate field="double(x2)" operator="lessOrEqual" value="0.03529411554336548"/>
																</Node>
															</Node>
														</Node>
													</Node>
													<Node score="1.1146204166666667">
														<SimplePredicate field="double(x2)" operator="lessOrEqual" value="1.1357142925262451"/>
														<Node score="1.5053041666666667">
															<SimplePredicate field="double(x2)" operator="lessOrEqual" value="0.8571428656578064"/>
															<Node score="0.7070083333333335">
																<SimplePredicate field="double(x2)" operator="lessOrEqual" value="0.6214285492897034"/>
																<Node score="2.52182875">
																	<SimplePredicate field="double(x2)" operator="lessOrEqual" value="-0.9249999821186066"/>
																	<Node score="1.9416833333333334">
																		<SimplePredicate field="double(x1)" operator="lessOrEqual" value="20.66333293914795"/>
																		<Node score="1.12732625">
																			<SimplePredicate field="double(x2)" operator="lessOrEqual" value="-3.5321428775787354"/>
																			<Node score="1.0139812499999998">
																				<SimplePredicate field="double(x2)" operator="lessOrEqual" value="-4.349999904632568"/>
																			</Node>
																		</Node>
																		<Node score="1.0812675">
																			<SimplePredicate field="double(x2)" operator="lessOrEqual" value="-1.1071428656578064"/>
																			<Node score="1.4293054166666668">
																				<SimplePredicate field="double(x2)" operator="lessOrEqual" value="-1.8357142806053162"/>
																				<Node score="1.2788975">
																					<SimplePredicate field="double(x2)" operator="lessOrEqual" value="-2.1321427822113037"/>
																					<Node score="1.4327058333333333">
																						<SimplePredicate field="double(x1)" operator="lessOrEqual" value="4.944117546081543"/>
																						<Node score="1.4914645833333333">
																							<SimplePredicate field="double(x2)" operator="lessOrEqual" value="-2.5"/>
																						</Node>
																					</Node>
																					<Node score="1.2159883333333334">
																						<SimplePredicate field="double(x1)" operator="lessOrEqual" value="5.45588231086731"/>
																					</Node>
																					<Node score="1.4581704166666665">
																						<SimplePredicate field="double(x2)" operator="lessOrEqual" value="-2.232142925262451"/>
																						<Node score="1.4161645833333332">
																							<SimplePredicate field="double(x2)" operator="lessOrEqual" value="-2.467857241630554"/>
																						</Node>
																					</Node>
																				</Node>
																				<Node score="1.7423454166666665">
																					<SimplePredicate field="double(x2)" operator="lessOrEqual" value="-2.035714268684387"/>
																				</Node>
																				<Node score="1.3960641666666669">
																					<SimplePredicate field="double(x2)" operator="lessOrEqual" value="-1.9035714268684387"/>
																				</Node>
																			</Node>
																			<Node score="1.3330133333333334">
																				<SimplePredicate field="double(x2)" operator="lessOrEqual" value="-1.300000011920929"/>
																				<Node score="1.2969166666666665">
																					<SimplePredicate field="double(x1)" operator="lessOrEqual" value="6.529411554336548"/>
																				</Node>
																				<Node score="1.3766583333333333">
																					<SimplePredicate field="double(x2)" operator="lessOrEqual" value="-1.6785714030265808"/>
																					<Node score="1.3431545833333332">
																						<SimplePredicate field="double(x1)" operator="lessOrEqual" value="11.803137302398682"/>
																					</Node>
																				</Node>
																				<Node score="1.33937">
																					<SimplePredicate field="double(x2)" operator="lessOrEqual" value="-1.4678571224212646"/>
																				</Node>
																			</Node>
																		</Node>
																	</Node>
																</Node>
																<Node score="1.1716183333333332">
																	<SimplePredicate field="double(x1)" operator="lessOrEqual" value="12.497058868408203"/>
																	<Node score="1.3769533333333335">
																		<SimplePredicate field="double(x1)" operator="lessOrEqual" value="6.3507843017578125"/>
																		<Node score="0.9849391666666666">
																			<SimplePredicate field="double(x2)" operator="lessOrEqual" value="0.2535714209079743"/>
																			<Node score="1.2495533333333333">
																				<SimplePredicate field="double(x2)" operator="lessOrEqual" value="-0.06428571790456768"/>
																				<Node score="1.1135270833333333">
																					<SimplePredicate field="double(x1)" operator="lessOrEqual" value="6.095293998718262"/>
																					<Node score="1.226115">
																						<SimplePredicate field="double(x1)" operator="lessOrEqual" value="4.4852941036224365"/>
																						<Node score="1.1238204166666668">
																							<SimplePredicate field="double(x1)" operator="lessOrEqual" value="4.114706039428711"/>
																						</Node>
																					</Node>
																					<Node score="1.0385829166666667">
																						<SimplePredicate field="double(x2)" operator="lessOrEqual" value="-0.2142857238650322"/>
																						<Node score="1.11521375">
																							<SimplePredicate field="double(x2)" operator="lessOrEqual" value="-0.5535714328289032"/>
																						</Node>
																					</Node>
																				</Node>
																			</Node>
																		</Node>
																	</Node>
																	<Node score="1.1017325">
																		<SimplePredicate field="double(x2)" operator="lessOrEqual" value="-0.6500000059604645"/>
																		<Node score="1.2237554166666667">
																			<SimplePredicate field="double(x2)" operator="lessOrEqual" value="-0.7249999940395355"/>
																		</Node>
																	</Node>
																	<Node score="2.0625933333333335">
																		<SimplePredicate field="double(x2)" operator="lessOrEqual" value="-0.4928571432828903"/>
																	</Node>
																	<Node score="1.3890358333333335">
																		<SimplePredicate field="double(x2)" operator="lessOrEqual" value="0.08214285969734192"/>
																		<Node score="1.5170904166666668">
																			<SimplePredicate field="double(x1)" operator="lessOrEqual" value="8.261764526367188"/>
																		</Node>
																		<Node score="1.4102704166666669">
																			<SimplePredicate field="double(x1)" operator="lessOrEqual" value="10.591176509857178"/>
																		</Node>
																	</Node>
																	<Node score="1.12746875">
																		<SimplePredicate field="double(x2)" operator="lessOrEqual" value="0.3107142858207226"/>
																	</Node>
																</Node>
																<Node score="1.2402945833333334">
																	<SimplePredicate field="double(x1)" operator="lessOrEqual" value="20.591567993164062"/>
																	<Node score="1.01902125">
																		<SimplePredicate field="double(x2)" operator="lessOrEqual" value="0.48571427166461945"/>
																		<Node score="1.1207874999999998">
																			<SimplePredicate field="double(x1)" operator="lessOrEqual" value="13.010392189025879"/>
																		</Node>
																		<Node score="1.01967">
																			<SimplePredicate field="double(x2)" operator="lessOrEqual" value="-0.5892857164144516"/>
																		</Node>
																		<Node score="0.9660558333333332">
																			<SimplePredicate field="double(x1)" operator="lessOrEqual" value="15.620587825775146"/>
																		</Node>
																	</Node>
																</Node>
															</Node>
															<Node score="2.0488166666666667">
																<SimplePredicate field="double(x2)" operator="lessOrEqual" value="0.6964285671710968"/>
															</Node>
															<Node score="1.1582316666666665">
																<SimplePredicate field="double(x1)" operator="lessOrEqual" value="13.547255516052246"/>
															</Node>
														</Node>
														<Node score="0.8286820833333334">
															<SimplePredicate field="double(x2)" operator="lessOrEqual" value="0.9571428596973419"/>
														</Node>
														<Node score="0.9799316666666668">
															<SimplePredicate field="double(x2)" operator="lessOrEqual" value="1.060714304447174"/>
														</Node>
													</Node>
													<Node score="2.23444125">
														<SimplePredicate field="double(x2)" operator="lessOrEqual" value="1.2321428656578064"/>
													</Node>
												</Node>
											</Node>
											<Node score="1.2930470833333334">
												<SimplePredicate field="double(x1)" operator="lessOrEqual" value="7.336764812469482"/>
												<Node score="1.8550250000000001">
													<SimplePredicate field="double(x1)" operator="lessOrEqual" value="3.816666603088379"/>
												</Node>
												<Node score="0.9301220833333333">
													<SimplePredicate field="double(x2)" operator="lessOrEqual" value="2.0678572058677673"/>
													<Node score="1.3753733333333333">
														<SimplePredicate field="double(x1)" operator="lessOrEqual" value="6.75705885887146"/>
														<Node score="1.2139095833333333">
															<SimplePredicate field="double(x1)" operator="lessOrEqual" value="4.836029529571533"/>
														</Node>
														<Node score="1.3479604166666668">
															<SimplePredicate field="double(x2)" operator="lessOrEqual" value="1.9571428894996643"/>
															<Node score="1.35223625">
																<SimplePredicate field="double(x2)" operator="lessOrEqual" value="1.8267857432365417"/>
															</Node>
														</Node>
													</Node>
												</Node>
												<Node score="0.8405033333333333">
													<SimplePredicate field="double(x1)" operator="lessOrEqual" value="5.802941083908081"/>
													<Node score="1.0352779166666666">
														<SimplePredicate field="double(x1)" operator="lessOrEqual" value="4.900000095367432"/>
														<Node score="0.9932154166666667">
															<SimplePredicate field="double(x2)" operator="lessOrEqual" value="2.325000047683716"/>
														</Node>
													</Node>
													<Node score="0.8572466666666667">
														<SimplePredicate field="double(x1)" operator="lessOrEqual" value="5.4100000858306885"/>
													</Node>
												</Node>
												<Node score="1.30453625">
													<SimplePredicate field="double(x2)" operator="lessOrEqual" value="2.607142925262451"/>
												</Node>
											</Node>
											<Node score="0.9609008333333332">
												<SimplePredicate field="double(x1)" operator="lessOrEqual" value="8.01764702796936"/>
												<Node score="0.4892125">
													<SimplePredicate field="double(x2)" operator="lessOrEqual" value="1.6390756368637085"/>
												</Node>
											</Node>
											<Node score="1.0788933333333333">
												<SimplePredicate field="double(x2)" operator="lessOrEqual" value="2.210714340209961"/>
												<Node score="1.2384079166666666">
													<SimplePredicate field="double(x1)" operator="lessOrEqual" value="8.592744827270508"/>
												</Node>
												<Node score="1.1666100000000001">
													<SimplePredicate field="double(x2)" operator="lessOrEqual" value="1.9142857193946838"/>
													<Node score="0.9951920833333334">
														<SimplePredicate field="double(x2)" operator="lessOrEqual" value="1.3892857432365417"/>
													</Node>
													<Node score="1.2098625">
														<SimplePredicate field="double(x2)" operator="lessOrEqual" value="1.6357142925262451"/>
													</Node>
												</Node>
												<Node score="0.8935895833333333">
													<SimplePredicate field="double(x2)" operator="lessOrEqual" value="2.0785714387893677"/>
													<Node score="0.9301220833333333">
														<SimplePredicate field="double(x2)" operator="lessOrEqual" value="1.9928571581840515"/>
													</Node>
												</Node>
												<Node score="1.0935724999999998">
													<SimplePredicate field="double(x1)" operator="lessOrEqual" value="20.09705877304077"/>
												</Node>
											</Node>
											<Node score="0.7295254166666666">
												<SimplePredicate field="double(x2)" operator="lessOrEqual" value="2.4142857789993286"/>
											</Node>
										</Node>
									</Node>
									<Node score="0.29979375">
										<SimplePredicate field="double(x1)" operator="lessOrEqual" value="0.47058823704719543"/>
									</Node>
									<Node score="0.9321491666666667">
										<SimplePredicate field="double(x1)" operator="lessOrEqual" value="1.5290440917015076"/>
										<Node score="2.18474625">
											<SimplePredicate field="double(x2)" operator="lessOrEqual" value="6.5142858028411865"/>
											<Node score="1.7359804166666668">
												<SimplePredicate field="double(x2)" operator="lessOrEqual" value="5.882142782211304"/>
												<Node score="1.8280700000000003">
													<SimplePredicate field="double(x1)" operator="lessOrEqual" value="0.967647060751915"/>
												</Node>
											</Node>
										</Node>
									</Node>
									<Node score="0.27490375">
										<SimplePredicate field="double(x1)" operator="lessOrEqual" value="1.625"/>
									</Node>
									<Node score="1.9434079166666667">
										<SimplePredicate field="double(x1)" operator="lessOrEqual" value="5.91911768913269"/>
										<Node score="1.3569912499999999">
											<SimplePredicate field="double(x2)" operator="lessOrEqual" value="4.808088302612305"/>
											<Node score="1.0723470833333335">
												<SimplePredicate field="double(x3)" operator="lessOrEqual" value="1.5"/>
												<Node score="0.5133245833333334">
													<SimplePredicate field="double(x2)" operator="lessOrEqual" value="4.247610330581665"/>
													<Node score="0.585785">
														<SimplePredicate field="double(x1)" operator="lessOrEqual" value="3.423333466053009"/>
													</Node>
												</Node>
												<Node score="0.8909316666666666">
													<SimplePredicate field="double(x1)" operator="lessOrEqual" value="4.205000042915344"/>
												</Node>
												<Node score="1.1060170833333334">
													<SimplePredicate field="double(x2)" operator="lessOrEqual" value="4.722794055938721"/>
												</Node>
											</Node>
											<Node score="1.1060170833333334">
												<SimplePredicate field="double(x1)" operator="lessOrEqual" value="4.910294055938721"/>
											</Node>
											<Node score="1.2958100000000001">
												<SimplePredicate field="double(x1)" operator="lessOrEqual" value="5.729411602020264"/>
											</Node>
										</Node>
										<Node score="1.0278720833333332">
											<SimplePredicate field="double(x1)" operator="lessOrEqual" value="4.967647075653076"/>
											<Node score="1.6441287500000001">
												<SimplePredicate field="double(x2)" operator="lessOrEqual" value="4.894117593765259"/>
											</Node>
											<Node score="0.5397850000000001">
												<SimplePredicate field="double(x1)" operator="lessOrEqual" value="3.6382352113723755"/>
												<Node score="1.7209500000000002">
													<SimplePredicate field="double(x2)" operator="lessOrEqual" value="5.788655519485474"/>
													<Node score="1.2648816666666667">
														<SimplePredicate field="double(x2)" operator="lessOrEqual" value="5.702941179275513"/>
														<Node score="1.2150266666666667">
															<SimplePredicate field="double(x3)" operator="lessOrEqual" value="1.5"/>
														</Node>
													</Node>
												</Node>
											</Node>
											<Node score="1.4068883333333335">
												<SimplePredicate field="double(x2)" operator="lessOrEqual" value="7.153571605682373"/>
												<Node score="1.4577266666666666">
													<SimplePredicate field="double(x1)" operator="lessOrEqual" value="4.683455944061279"/>
													<Node score="1.4651879166666666">
														<SimplePredicate field="double(x1)" operator="lessOrEqual" value="4.186396956443787"/>
													</Node>
												</Node>
											</Node>
										</Node>
									</Node>
									<Node score="0.7163725">
										<SimplePredicate field="double(x1)" operator="lessOrEqual" value="6.774632215499878"/>
										<Node score="0.4611845833333333">
											<SimplePredicate field="double(x2)" operator="lessOrEqual" value="7.105882406234741"/>
											<Node score="0.42754208333333327">
												<SimplePredicate field="double(x1)" operator="lessOrEqual" value="6.053571462631226"/>
											</Node>
										</Node>
									</Node>
									<Node score="1.4556275000000003">
										<SimplePredicate field="double(x1)" operator="lessOrEqual" value="8.41196060180664"/>
										<Node score="1.7209500000000002">
											<SimplePredicate field="double(x1)" operator="lessOrEqual" value="7.755882501602173"/>
											<Node score="1.601848333333333">
												<SimplePredicate field="double(x1)" operator="lessOrEqual" value="7.02647066116333"/>
											</Node>
										</Node>
									</Node>
									<Node score="0.2771841666666666">
										<SimplePredicate field="double(x1)" operator="lessOrEqual" value="8.84541654586792"/>
										<Node score="0.8405033333333333">
											<SimplePredicate field="double(x2)" operator="lessOrEqual" value="3.6285715103149414"/>
											<Node score="0.8572466666666667">
												<SimplePredicate field="double(x1)" operator="lessOrEqual" value="8.603332996368408"/>
											</Node>
										</Node>
									</Node>
									<Node score="1.96779875">
										<SimplePredicate field="double(x2)" operator="lessOrEqual" value="4.077678561210632"/>
										<Node score="0.7690354166666667">
											<SimplePredicate field="double(x2)" operator="lessOrEqual" value="3.7035714387893677"/>
											<Node score="1.26283625">
												<SimplePredicate field="double(x1)" operator="lessOrEqual" value="27.732352256774902"/>
												<Node score="0.7779400000000001">
													<SimplePredicate field="double(x2)" operator="lessOrEqual" value="3.0464285612106323"/>
												</Node>
												<Node score="1.7328208333333335">
													<SimplePredicate field="double(x2)" operator="lessOrEqual" value="3.1928571462631226"/>
												</Node>
											</Node>
										</Node>
									</Node>
									<Node score="0.4385841666666666">
										<SimplePredicate field="double(x2)" operator="lessOrEqual" value="5.921428442001343"/>
										<Node score="0.7977258333333332">
											<SimplePredicate field="double(x1)" operator="lessOrEqual" value="25.1012601852417"/>
											<Node score="0.4385841666666666">
												<SimplePredicate field="double(x3)" operator="lessOrEqual" value="1.5"/>
											</Node>
										</Node>
									</Node>
									<Node score="1.6441287500000001">
										<SimplePredicate field="double(x2)" operator="lessOrEqual" value="6.628571510314941"/>
										<Node score="1.1060558333333332">
											<SimplePredicate field="double(x2)" operator="lessOrEqual" value="6.354201793670654"/>
											<Node score="1.1060558333333332">
												<SimplePredicate field="double(x3)" operator="lessOrEqual" value="1.5"/>
												<Node score="1.0896774999999999">
													<SimplePredicate field="double(x2)" operator="lessOrEqual" value="6.020588159561157"/>
												</Node>
											</Node>
										</Node>
									</Node>
									<Node score="0.5133245833333334">
										<SimplePredicate field="double(x2)" operator="lessOrEqual" value="7.010714292526245"/>
										<Node score="0.5099250000000001">
											<SimplePredicate field="double(x2)" operator="lessOrEqual" value="6.817857027053833"/>
										</Node>
									</Node>
								</Node>
								<Node score="4.097364166666667">
									<SimplePredicate field="double(x1)" operator="lessOrEqual" value="13.31176471710205"/>
									<Node score="3.0678629166666664">
										<SimplePredicate field="double(x2)" operator="lessOrEqual" value="10.25"/>
										<Node score="3.791654166666666">
											<SimplePredicate field="double(x1)" operator="lessOrEqual" value="0.6622548997402191"/>
										</Node>
										<Node score="0.019765833333333333">
											<SimplePredicate field="double(x1)" operator="lessOrEqual" value="1.0272058844566345"/>
											<Node score="1.7204820833333334">
												<SimplePredicate field="double(x1)" operator="lessOrEqual" value="0.7210784256458282"/>
											</Node>
											<Node score="0.34585708333333337">
												<SimplePredicate field="double(x1)" operator="lessOrEqual" value="0.9312499761581421"/>
												<Node score="0.2864845833333333">
													<SimplePredicate field="double(x3)" operator="lessOrEqual" value="1.5"/>
												</Node>
											</Node>
										</Node>
										<Node score="1.7205795833333333">
											<SimplePredicate field="double(x1)" operator="lessOrEqual" value="10.148529529571533"/>
											<Node score="3.5019600000000004">
												<SimplePredicate field="double(x1)" operator="lessOrEqual" value="4.6875"/>
												<Node score="3.1157245833333334">
													<SimplePredicate field="double(x1)" operator="lessOrEqual" value="4.586029529571533"/>
													<Node score="1.8256375">
														<SimplePredicate field="double(x1)" operator="lessOrEqual" value="2.7768383026123047"/>
														<Node score="0.34585708333333337">
															<SimplePredicate field="double(x1)" operator="lessOrEqual" value="1.2705882787704468"/>
															<Node score="1.7667820833333334">
																<SimplePredicate field="double(x2)" operator="lessOrEqual" value="9.227678775787354"/>
																<Node score="1.3411658333333334">
																	<SimplePredicate field="double(x3)" operator="lessOrEqual" value="1.5"/>
																	<Node score="1.4068883333333335">
																		<SimplePredicate field="double(x1)" operator="lessOrEqual" value="1.1299999952316284"/>
																		<Node score="1.4301366666666668">
																			<SimplePredicate field="double(x2)" operator="lessOrEqual" value="7.980882406234741"/>
																		</Node>
																	</Node>
																</Node>
																<Node score="2.0393416666666666">
																	<SimplePredicate field="double(x1)" operator="lessOrEqual" value="1.0647059082984924"/>
																</Node>
															</Node>
														</Node>
														<Node score="1.20912375">
															<SimplePredicate field="double(x2)" operator="lessOrEqual" value="7.857142686843872"/>
															<Node score="2.1180429166666666">
																<SimplePredicate field="double(x2)" operator="lessOrEqual" value="7.663602828979492"/>
																<Node score="2.16841375">
																	<SimplePredicate field="double(x3)" operator="lessOrEqual" value="1.5"/>
																</Node>
															</Node>
															<Node score="1.601848333333333">
																<SimplePredicate field="double(x1)" operator="lessOrEqual" value="2.2011764645576477"/>
															</Node>
														</Node>
														<Node score="3.2389587499999997">
															<SimplePredicate field="double(x2)" operator="lessOrEqual" value="9.071428775787354"/>
															<Node score="2.3003216666666666">
																<SimplePredicate field="double(x3)" operator="lessOrEqual" value="1.5"/>
															</Node>
															<Node score="2.3224379166666664">
																<SimplePredicate field="double(x1)" operator="lessOrEqual" value="1.5"/>
															</Node>
															<Node score="3.4554387500000003">
																<SimplePredicate field="double(x2)" operator="lessOrEqual" value="8.414286136627197"/>
																<Node score="3.5019600000000004">
																	<SimplePredicate field="double(x2)" operator="lessOrEqual" value="8.035714387893677"/>
																</Node>
															</Node>
														</Node>
													</Node>
													<Node score="1.012625">
														<SimplePredicate field="double(x1)" operator="lessOrEqual" value="4.212500095367432"/>
														<Node score="0.8513208333333334">
															<SimplePredicate field="double(x2)" operator="lessOrEqual" value="8.099999904632568"/>
														</Node>
														<Node score="1.9540416666666667">
															<SimplePredicate field="double(x2)" operator="lessOrEqual" value="8.470588207244873"/>
														</Node>
														<Node score="1.4402754166666665">
															<SimplePredicate field="double(x1)" operator="lessOrEqual" value="3.78125"/>
															<Node score="1.5631645833333334">
																<SimplePredicate field="double(x1)" operator="lessOrEqual" value="2.8805882930755615"/>
															</Node>
															<Node score="1.3601679166666667">
																<SimplePredicate field="double(x1)" operator="lessOrEqual" value="3.2100000381469727"/>
															</Node>
														</Node>
													</Node>
													<Node score="1.3411658333333334">
														<SimplePredicate field="double(x2)" operator="lessOrEqual" value="8.871638774871826"/>
													</Node>
												</Node>
											</Node>
											<Node score="1.88992">
												<SimplePredicate field="double(x2)" operator="lessOrEqual" value="8.244537830352783"/>
												<Node score="1.7754558333333332">
													<SimplePredicate field="double(x1)" operator="lessOrEqual" value="9.426470756530762"/>
													<Node score="1.7661550000000001">
														<SimplePredicate field="double(x3)" operator="lessOrEqual" value="1.5"/>
														<Node score="1.5955958333333333">
															<SimplePredicate field="double(x2)" operator="lessOrEqual" value="7.799999952316284"/>
														</Node>
													</Node>
													<Node score="1.7661550000000001">
														<SimplePredicate field="double(x1)" operator="lessOrEqual" value="8.599999904632568"/>
													</Node>
												</Node>
												<Node score="2.30605875">
													<SimplePredicate field="double(x1)" operator="lessOrEqual" value="9.705882549285889"/>
												</Node>
											</Node>
											<Node score="0.71532875">
												<SimplePredicate field="double(x2)" operator="lessOrEqual" value="8.465966701507568"/>
											</Node>
											<Node score="1.012625">
												<SimplePredicate field="double(x2)" operator="lessOrEqual" value="10.122899055480957"/>
												<Node score="1.5731379166666664">
													<SimplePredicate field="double(x2)" operator="lessOrEqual" value="8.828571796417236"/>
												</Node>
												<Node score="1.3200183333333333">
													<SimplePredicate field="double(x1)" operator="lessOrEqual" value="6.838235139846802"/>
													<Node score="1.17522125">
														<SimplePredicate field="double(x2)" operator="lessOrEqual" value="9.617857456207275"/>
													</Node>
												</Node>
											</Node>
										</Node>
										<Node score="2.5783125">
											<SimplePredicate field="double(x3)" operator="lessOrEqual" value="1.5"/>
										</Node>
									</Node>
								</Node>
								<Node score="0.91090375">
									<SimplePredicate field="double(x2)" operator="lessOrEqual" value="8.696428298950195"/>
									<Node score="1.0896774999999999">
										<SimplePredicate field="double(x1)" operator="lessOrEqual" value="15.49117660522461"/>
									</Node>
									<Node score="0.5428854166666667">
										<SimplePredicate field="double(x2)" operator="lessOrEqual" value="8.25"/>
										<Node score="0.71532875">
											<SimplePredicate field="double(x2)" operator="lessOrEqual" value="7.721428632736206"/>
										</Node>
										<Node score="0.42754208333333327">
											<SimplePredicate field="double(x2)" operator="lessOrEqual" value="8.000000238418579"/>
										</Node>
									</Node>
								</Node>
								<Node score="0.23053166666666666">
									<SimplePredicate field="double(x2)" operator="lessOrEqual" value="9.882143020629883"/>
									<Node score="0.29093874999999997">
										<SimplePredicate field="double(x1)" operator="lessOrEqual" value="21.170588493347168"/>
									</Node>
								</Node>
							</Node>
							<Node score="1.7496070833333333">
								<SimplePredicate field="double(x3)" operator="lessOrEqual" value="1.5"/>
								<Node score="2.743076666666667">
									<SimplePredicate field="double(x1)" operator="lessOrEqual" value="0.027499999850988388"/>
									<Node score="5.833476666666667">
										<SimplePredicate field="double(x2)" operator="lessOrEqual" value="12.049999713897705"/>
										<Node score="3.4740933333333337">
											<SimplePredicate field="double(x2)" operator="lessOrEqual" value="11.183958053588867"/>
											<Node score="4.337250833333333">
												<SimplePredicate field="double(x1)" operator="lessOrEqual" value="0.018750000279396772"/>
												<Node score="4.3746729166666665">
													<SimplePredicate field="double(x2)" operator="lessOrEqual" value="10.661212921142578"/>
												</Node>
											</Node>
										</Node>
									</Node>
									<Node score="4.6836125">
										<SimplePredicate field="double(x2)" operator="lessOrEqual" value="14.726470470428467"/>
										<Node score="1.7364370833333334">
											<SimplePredicate field="double(x2)" operator="lessOrEqual" value="14.623529434204102"/>
											<Node score="1.3654504166666666">
												<SimplePredicate field="double(x2)" operator="lessOrEqual" value="13.81176471710205"/>
												<Node score="2.09642875">
													<SimplePredicate field="double(x2)" operator="lessOrEqual" value="12.918431282043457"/>
												</Node>
											</Node>
											<Node score="4.36148625">
												<SimplePredicate field="double(x2)" operator="lessOrEqual" value="14.243750095367432"/>
											</Node>
											<Node score="2.6765787499999996">
												<SimplePredicate field="double(x2)" operator="lessOrEqual" value="14.417279720306396"/>
											</Node>
										</Node>
									</Node>
									<Node score="1.5623858333333331">
										<SimplePredicate field="double(x2)" operator="lessOrEqual" value="17.55294132232666"/>
										<Node score="0.8036020833333334">
											<SimplePredicate field="double(x1)" operator="lessOrEqual" value="0.004999999888241291"/>
										</Node>
										<Node score="1.6939329166666666">
											<SimplePredicate field="double(x2)" operator="lessOrEqual" value="15.897058486938477"/>
										</Node>
									</Node>
								</Node>
								<Node score="3.83339875">
									<SimplePredicate field="double(x2)" operator="lessOrEqual" value="15.590624809265137"/>
									<Node score="1.5011554166666665">
										<SimplePredicate field="double(x1)" operator="lessOrEqual" value="19.36875009536743"/>
										<Node score="4.27700625">
											<SimplePredicate field="double(x2)" operator="lessOrEqual" value="10.708823204040527"/>
											<Node score="1.732830833333333">
												<SimplePredicate field="double(x1)" operator="lessOrEqual" value="2.865000009536743"/>
												<Node score="3.0943275">
													<SimplePredicate field="double(x1)" operator="lessOrEqual" value="2.3774999380111694"/>
												</Node>
											</Node>
										</Node>
										<Node score="1.689895">
											<SimplePredicate field="double(x2)" operator="lessOrEqual" value="11.56416654586792"/>
											<Node score="1.7092737500000001">
												<SimplePredicate field="double(x2)" operator="lessOrEqual" value="10.884313583374023"/>
												<Node score="1.5731379166666664">
													<SimplePredicate field="double(x2)" operator="lessOrEqual" value="10.78198528289795"/>
												</Node>
												<Node score="1.9540416666666667">
													<SimplePredicate field="double(x2)" operator="lessOrEqual" value="10.81041669845581"/>
												</Node>
											</Node>
											<Node score="0.52939375">
												<SimplePredicate field="double(x2)" operator="lessOrEqual" value="10.964313507080078"/>
											</Node>
											<Node score="1.5055529166666666">
												<SimplePredicate field="double(x1)" operator="lessOrEqual" value="2.700000047683716"/>
												<Node score="1.3200183333333333">
													<SimplePredicate field="double(x2)" operator="lessOrEqual" value="11.488431453704834"/>
												</Node>
											</Node>
											<Node score="1.6244954166666667">
												<SimplePredicate field="double(x1)" operator="lessOrEqual" value="4.319999933242798"/>
												<Node score="1.6094908333333333">
													<SimplePredicate field="double(x1)" operator="lessOrEqual" value="3.4600000381469727"/>
												</Node>
											</Node>
										</Node>
										<Node score="3.854785833333333">
											<SimplePredicate field="double(x2)" operator="lessOrEqual" value="12.55875015258789"/>
											<Node score="1.3731274999999998">
												<SimplePredicate field="double(x2)" operator="lessOrEqual" value="12.527841091156006"/>
												<Node score="4.07480125">
													<SimplePredicate field="double(x2)" operator="lessOrEqual" value="12.284509658813477"/>
													<Node score="1.6323145833333335">
														<SimplePredicate field="double(x2)" operator="lessOrEqual" value="11.668750286102295"/>
														<Node score="1.8779983333333332">
															<SimplePredicate field="double(x2)" operator="lessOrEqual" value="11.587500095367432"/>
														</Node>
													</Node>
													<Node score="2.128439166666667">
														<SimplePredicate field="double(x1)" operator="lessOrEqual" value="0.3187499940395355"/>
														<Node score="2.116633333333333">
															<SimplePredicate field="double(x2)" operator="lessOrEqual" value="12.143333435058594"/>
														</Node>
													</Node>
													<Node score="3.876791666666666">
														<SimplePredicate field="double(x1)" operator="lessOrEqual" value="0.8937499821186066"/>
													</Node>
												</Node>
												<Node score="1.3311429166666668">
													<SimplePredicate field="double(x2)" operator="lessOrEqual" value="12.450267314910889"/>
												</Node>
											</Node>
										</Node>
										<Node score="2.1901916666666668">
											<SimplePredicate field="double(x2)" operator="lessOrEqual" value="14.131249904632568"/>
											<Node score="1.8772775">
												<SimplePredicate field="double(x1)" operator="lessOrEqual" value="0.6166666746139526"/>
												<Node score="1.6371741666666668">
													<SimplePredicate field="double(x2)" operator="lessOrEqual" value="13.240000247955322"/>
													<Node score="1.7994420833333333">
														<SimplePredicate field="double(x2)" operator="lessOrEqual" value="12.833333492279053"/>
													</Node>
												</Node>
												<Node score="2.106722083333333">
													<SimplePredicate field="double(x1)" operator="lessOrEqual" value="0.32083333283662796"/>
												</Node>
											</Node>
											<Node score="0.8846129166666667">
												<SimplePredicate field="double(x2)" operator="lessOrEqual" value="12.723261833190918"/>
											</Node>
											<Node score="1.08331125">
												<SimplePredicate field="double(x1)" operator="lessOrEqual" value="11.368749856948853"/>
												<Node score="1.64534625">
													<SimplePredicate field="double(x2)" operator="lessOrEqual" value="14.03125"/>
													<Node score="1.5299279166666666">
														<SimplePredicate field="double(x1)" operator="lessOrEqual" value="1.1866666674613953"/>
														<Node score="1.5116362499999998">
															<SimplePredicate field="double(x2)" operator="lessOrEqual" value="13.382352828979492"/>
														</Node>
													</Node>
													<Node score="1.66359625">
														<SimplePredicate field="double(x1)" operator="lessOrEqual" value="6.137500047683716"/>
														<Node score="1.6713841666666667">
															<SimplePredicate field="double(x2)" operator="lessOrEqual" value="13.103125095367432"/>
														</Node>
														<Node score="1.6615979166666666">
															<SimplePredicate field="double(x1)" operator="lessOrEqual" value="3.8892858028411865"/>
														</Node>
													</Node>
												</Node>
											</Node>
										</Node>
										<Node score="2.72475">
											<SimplePredicate field="double(x2)" operator="lessOrEqual" value="14.336410522460938"/>
											<Node score="3.1657462499999998">
												<SimplePredicate field="double(x2)" operator="lessOrEqual" value="14.27583360671997"/>
												<Node score="3.3764758333333336">
													<SimplePredicate field="double(x2)" operator="lessOrEqual" value="14.21875"/>
												</Node>
											</Node>
										</Node>
										<Node score="1.7483929166666667">
											<SimplePredicate field="double(x1)" operator="lessOrEqual" value="1.9149999618530273"/>
											<Node score="1.425974583333333">
												<SimplePredicate field="double(x1)" operator="lessOrEqual" value="1.350000023841858"/>
												<Node score="1.6584145833333335">
													<SimplePredicate field="double(x1)" operator="lessOrEqual" value="0.676666684448719"/>
													<Node score="1.5835762500000001">
														<SimplePredicate field="double(x2)" operator="lessOrEqual" value="14.631900787353516"/>
													</Node>
													<Node score="1.7251154166666665">
														<SimplePredicate field="double(x1)" operator="lessOrEqual" value="0.08666666969656944"/>
													</Node>
												</Node>
											</Node>
										</Node>
										<Node score="2.396295">
											<SimplePredicate field="double(x1)" operator="lessOrEqual" value="5.174999952316284"/>
											<Node score="2.3598">
												<SimplePredicate field="double(x2)" operator="lessOrEqual" value="14.866666793823242"/>
											</Node>
										</Node>
									</Node>
								</Node>
								<Node score="4.954044166666667">
									<SimplePredicate field="double(x2)" operator="lessOrEqual" value="16.321874618530273"/>
									<Node score="4.73977875">
										<SimplePredicate field="double(x1)" operator="lessOrEqual" value="1.7812499701976776"/>
									</Node>
								</Node>
								<Node score="3.1463908333333337">
									<SimplePredicate field="double(x2)" operator="lessOrEqual" value="18.69981575012207"/>
									<Node score="2.60768625">
										<SimplePredicate field="double(x1)" operator="lessOrEqual" value="7.09624981880188"/>
										<Node score="3.6861645833333334">
											<SimplePredicate field="double(x2)" operator="lessOrEqual" value="16.95714282989502"/>
										</Node>
									</Node>
									<Node score="1.5770974999999998">
										<SimplePredicate field="double(x2)" operator="lessOrEqual" value="18.024999618530273"/>
										<Node score="1.6473391666666668">
											<SimplePredicate field="double(x1)" operator="lessOrEqual" value="10.383749961853027"/>
										</Node>
										<Node score="1.5536341666666666">
											<SimplePredicate field="double(x2)" operator="lessOrEqual" value="16.621874809265137"/>
										</Node>
									</Node>
								</Node>
								<Node score="1.3973416666666665">
									<SimplePredicate field="double(x2)" operator="lessOrEqual" value="19.202940940856934"/>
								</Node>
								<Node score="1.5568400000000002">
									<SimplePredicate field="double(x1)" operator="lessOrEqual" value="0.18000000528991222"/>
								</Node>
								<Node score="1.9275266666666668">
									<SimplePredicate field="double(x1)" operator="lessOrEqual" value="0.518750011920929"/>
								</Node>
							</Node>
							<Node score="3.83339875">
								<SimplePredicate field="double(x2)" operator="lessOrEqual" value="11.75"/>
								<Node score="1.1182174999999999">
									<SimplePredicate field="double(x1)" operator="lessOrEqual" value="20.488234519958496"/>
									<Node score="1.5131416666666666">
										<SimplePredicate field="double(x1)" operator="lessOrEqual" value="0.5235294103622437"/>
										<Node score="1.780055">
											<SimplePredicate field="double(x2)" operator="lessOrEqual" value="11.14642858505249"/>
										</Node>
										<Node score="1.5566458333333333">
											<SimplePredicate field="double(x1)" operator="lessOrEqual" value="0.34117647260427475"/>
										</Node>
									</Node>
									<Node score="2.26871">
										<SimplePredicate field="double(x1)" operator="lessOrEqual" value="5.770588397979736"/>
										<Node score="1.6301141666666668">
											<SimplePredicate field="double(x2)" operator="lessOrEqual" value="10.75"/>
										</Node>
										<Node score="2.6682179166666664">
											<SimplePredicate field="double(x1)" operator="lessOrEqual" value="1.085294097661972"/>
										</Node>
										<Node score="2.4979316666666667">
											<SimplePredicate field="double(x2)" operator="lessOrEqual" value="11.303571224212646"/>
											<Node score="2.37164375">
												<SimplePredicate field="double(x2)" operator="lessOrEqual" value="11.007143020629883"/>
												<Node score="2.3457495833333333">
													<SimplePredicate field="double(x2)" operator="lessOrEqual" value="10.900000095367432"/>
												</Node>
											</Node>
										</Node>
									</Node>
									<Node score="1.7420183333333332">
										<SimplePredicate field="double(x2)" operator="lessOrEqual" value="11.150000095367432"/>
										<Node score="2.3479541666666663">
											<SimplePredicate field="double(x1)" operator="lessOrEqual" value="7.897058725357056"/>
										</Node>
									</Node>
								</Node>
							</Node>
							<Node score="3.4664991666666665">
								<SimplePredicate field="double(x1)" operator="lessOrEqual" value="3.25"/>
								<Node score="3.2615649999999996">
									<SimplePredicate field="double(x1)" operator="lessOrEqual" value="1.6823529601097107"/>
									<Node score="2.7528029166666665">
										<SimplePredicate field="double(x1)" operator="lessOrEqual" value="0.20588235557079315"/>
										<Node score="5.233745833333334">
